Language model created by QuickLM on Tue May  2 17:22:28 EDT 2017
Copyright (c) 1996-2010 Carnegie Mellon University and Alexander I. Rudnicky

The model is in standard ARPA format, designed by Doug Paul while he was at MITRE.

The code that was used to produce this language model is available in Open Source.
Please visit http://www.speech.cs.cmu.edu/tools/ for more information

The (fixed) discount mass is 0.5. The backoffs are computed using the ratio method.
This model based on a corpus of 21 sentences and 29 words

\data\
ngram 1=29
ngram 2=47
ngram 3=41

\1-grams:
-0.9379 </s> -0.3010
-0.9379 <s> -0.2369
-1.9590 A -0.2478
-2.2601 ABORT -0.2478
-1.9590 B -0.2478
-1.9590 BACKWARD -0.2478
-1.9590 C -0.2478
-2.2601 CANCEL -0.2478
-2.2601 FORWARD -0.2478
-2.2601 FOWARD -0.2478
-1.7830 GO -0.2938
-1.9590 IS -0.2938
-2.2601 IT -0.2478
-2.2601 LEFT -0.2478
-2.2601 ME -0.2962
-1.9590 MOVE -0.2938
-2.2601 MOVING -0.2478
-1.9590 MUSIC -0.2478
-1.9590 NAME -0.2478
-2.2601 PLAY -0.2962
-2.2601 RIGHT -0.2478
-1.4819 ROOM -0.2865
-1.7830 STOP -0.2396
-2.2601 TELL -0.2986
-2.2601 TIME -0.2962
-1.7830 TO -0.2865
-1.9590 TURN -0.2962
-1.9590 WHAT -0.2938
-1.9590 YOUR -0.2962

\2-grams:
-1.6232 <s> ABORT 0.0000
-1.6232 <s> BACKWARD 0.0000
-1.6232 <s> CANCEL 0.0000
-1.6232 <s> FOWARD 0.0000
-1.1461 <s> GO 0.0000
-1.3222 <s> MOVE 0.0000
-1.6232 <s> PLAY 0.0000
-1.1461 <s> ROOM 0.0000
-1.1461 <s> STOP 0.0000
-1.6232 <s> TELL 0.0000
-1.3222 <s> TURN 0.0000
-1.3222 <s> WHAT 0.0000
-0.3010 A </s> -0.3010
-0.3010 ABORT </s> -0.3010
-0.3010 B </s> -0.3010
-0.3010 BACKWARD </s> -0.3010
-0.3010 C </s> -0.3010
-0.3010 CANCEL </s> -0.3010
-0.3010 FORWARD </s> -0.3010
-0.3010 FOWARD </s> -0.3010
-0.3010 GO TO 0.0000
-0.6021 IS IT 0.0000
-0.6021 IS YOUR 0.0000
-0.3010 IT </s> -0.3010
-0.3010 LEFT </s> -0.3010
-0.3010 ME YOUR 0.0000
-0.6021 MOVE BACKWARD 0.0000
-0.6021 MOVE FORWARD 0.0000
-0.3010 MOVING </s> -0.3010
-0.3010 MUSIC </s> -0.3010
-0.3010 NAME </s> -0.3010
-0.3010 PLAY MUSIC 0.0000
-0.3010 RIGHT </s> -0.3010
-0.7782 ROOM A 0.0000
-0.7782 ROOM B 0.0000
-0.7782 ROOM C 0.0000
-0.7782 STOP </s> -0.3010
-0.7782 STOP MOVING 0.0000
-0.7782 STOP MUSIC 0.0000
-0.3010 TELL ME 0.0000
-0.3010 TIME IS -0.1761
-0.3010 TO ROOM 0.0000
-0.6021 TURN LEFT 0.0000
-0.6021 TURN RIGHT 0.0000
-0.6021 WHAT IS -0.1761
-0.6021 WHAT TIME 0.0000
-0.3010 YOUR NAME 0.0000

\3-grams:
-0.3010 <s> ABORT </s>
-0.3010 <s> BACKWARD </s>
-0.3010 <s> CANCEL </s>
-0.3010 <s> FOWARD </s>
-0.3010 <s> GO TO
-0.6021 <s> MOVE BACKWARD
-0.6021 <s> MOVE FORWARD
-0.3010 <s> PLAY MUSIC
-0.7782 <s> ROOM A
-0.7782 <s> ROOM B
-0.7782 <s> ROOM C
-0.7782 <s> STOP </s>
-0.7782 <s> STOP MOVING
-0.7782 <s> STOP MUSIC
-0.3010 <s> TELL ME
-0.6021 <s> TURN LEFT
-0.6021 <s> TURN RIGHT
-0.6021 <s> WHAT IS
-0.6021 <s> WHAT TIME
-0.3010 GO TO ROOM
-0.3010 IS IT </s>
-0.3010 IS YOUR NAME
-0.3010 ME YOUR NAME
-0.3010 MOVE BACKWARD </s>
-0.3010 MOVE FORWARD </s>
-0.3010 PLAY MUSIC </s>
-0.3010 ROOM A </s>
-0.3010 ROOM B </s>
-0.3010 ROOM C </s>
-0.3010 STOP MOVING </s>
-0.3010 STOP MUSIC </s>
-0.3010 TELL ME YOUR
-0.3010 TIME IS IT
-0.7782 TO ROOM A
-0.7782 TO ROOM B
-0.7782 TO ROOM C
-0.3010 TURN LEFT </s>
-0.3010 TURN RIGHT </s>
-0.3010 WHAT IS YOUR
-0.3010 WHAT TIME IS
-0.3010 YOUR NAME </s>

\end\
