Language model created by QuickLM on Sat Apr 29 18:17:52 EDT 2017
Copyright (c) 1996-2010 Carnegie Mellon University and Alexander I. Rudnicky

The model is in standard ARPA format, designed by Doug Paul while he was at MITRE.

The code that was used to produce this language model is available in Open Source.
Please visit http://www.speech.cs.cmu.edu/tools/ for more information

The (fixed) discount mass is 0.5. The backoffs are computed using the ratio method.
This model based on a corpus of 18 sentences and 26 words

\data\
ngram 1=26
ngram 2=45
ngram 3=36

\1-grams:
-0.9031 </s> -0.3010
-0.9031 <s> -0.2326
-2.1584 ABORT -0.2430
-2.1584 ARE -0.2980
-1.8573 BACKWARD -0.2430
-2.1584 CANCEL -0.2430
-2.1584 DAY -0.2919
-2.1584 FORWARD -0.2430
-2.1584 FOWARD -0.2430
-1.6812 IS -0.2919
-2.1584 IT -0.2430
-2.1584 LEFT -0.2430
-1.8573 MOVE -0.2919
-2.1584 MOVING -0.2430
-1.8573 MUSIC -0.2430
-1.8573 NAME -0.2430
-2.1584 PLAY -0.2950
-2.1584 RIGHT -0.2430
-1.6812 STOP -0.2326
-1.8573 TIME -0.2326
-2.1584 TODAY -0.2430
-1.8573 TURN -0.2950
-1.6812 WHAT -0.2825
-2.1584 WHERE -0.2980
-2.1584 YOU -0.2430
-2.1584 YOUR -0.2950

\2-grams:
-1.5563 <s> ABORT 0.0000
-1.5563 <s> BACKWARD 0.0000
-1.5563 <s> CANCEL 0.0000
-1.5563 <s> FOWARD 0.0000
-1.2553 <s> MOVE 0.0000
-1.5563 <s> NAME 0.0000
-1.5563 <s> PLAY 0.0000
-1.0792 <s> STOP 0.0000
-1.5563 <s> TIME -0.1761
-1.2553 <s> TURN 0.0000
-1.0792 <s> WHAT 0.0000
-1.5563 <s> WHERE 0.0000
-0.3010 ABORT </s> -0.3010
-0.3010 ARE YOU 0.0000
-0.3010 BACKWARD </s> -0.3010
-0.3010 CANCEL </s> -0.3010
-0.3010 DAY IS -0.2218
-0.3010 FORWARD </s> -0.3010
-0.3010 FOWARD </s> -0.3010
-0.7782 IS IT 0.0000
-0.7782 IS TODAY 0.0000
-0.7782 IS YOUR 0.0000
-0.3010 IT </s> -0.3010
-0.3010 LEFT </s> -0.3010
-0.6021 MOVE BACKWARD 0.0000
-0.6021 MOVE FORWARD 0.0000
-0.3010 MOVING </s> -0.3010
-0.3010 MUSIC </s> -0.3010
-0.3010 NAME </s> -0.3010
-0.3010 PLAY MUSIC 0.0000
-0.3010 RIGHT </s> -0.3010
-0.7782 STOP </s> -0.3010
-0.7782 STOP MOVING 0.0000
-0.7782 STOP MUSIC 0.0000
-0.6021 TIME </s> -0.3010
-0.6021 TIME IS -0.2218
-0.3010 TODAY </s> -0.3010
-0.6021 TURN LEFT 0.0000
-0.6021 TURN RIGHT 0.0000
-0.7782 WHAT DAY 0.0000
-0.7782 WHAT IS -0.2218
-0.7782 WHAT TIME -0.1761
-0.3010 WHERE ARE 0.0000
-0.3010 YOU </s> -0.3010
-0.3010 YOUR NAME 0.0000

\3-grams:
-0.3010 <s> ABORT </s>
-0.3010 <s> BACKWARD </s>
-0.3010 <s> CANCEL </s>
-0.3010 <s> FOWARD </s>
-0.6021 <s> MOVE BACKWARD
-0.6021 <s> MOVE FORWARD
-0.3010 <s> NAME </s>
-0.3010 <s> PLAY MUSIC
-0.7782 <s> STOP </s>
-0.7782 <s> STOP MOVING
-0.7782 <s> STOP MUSIC
-0.3010 <s> TIME </s>
-0.6021 <s> TURN LEFT
-0.6021 <s> TURN RIGHT
-0.7782 <s> WHAT DAY
-0.7782 <s> WHAT IS
-0.7782 <s> WHAT TIME
-0.3010 <s> WHERE ARE
-0.3010 ARE YOU </s>
-0.3010 DAY IS TODAY
-0.3010 IS IT </s>
-0.3010 IS TODAY </s>
-0.3010 IS YOUR NAME
-0.3010 MOVE BACKWARD </s>
-0.3010 MOVE FORWARD </s>
-0.3010 PLAY MUSIC </s>
-0.3010 STOP MOVING </s>
-0.3010 STOP MUSIC </s>
-0.3010 TIME IS IT
-0.3010 TURN LEFT </s>
-0.3010 TURN RIGHT </s>
-0.3010 WHAT DAY IS
-0.3010 WHAT IS YOUR
-0.3010 WHAT TIME IS
-0.3010 WHERE ARE YOU
-0.3010 YOUR NAME </s>

\end\
