Language model created by QuickLM on Mon Apr 24 20:14:10 EDT 2017
Copyright (c) 1996-2010 Carnegie Mellon University and Alexander I. Rudnicky

The model is in standard ARPA format, designed by Doug Paul while he was at MITRE.

The code that was used to produce this language model is available in Open Source.
Please visit http://www.speech.cs.cmu.edu/tools/ for more information

The (fixed) discount mass is 0.5. The backoffs are computed using the ratio method.
This model based on a corpus of 19 sentences and 32 words

\data\
ngram 1=32
ngram 2=52
ngram 3=42

\1-grams:
-0.9361 </s> -0.3010
-0.9361 <s> -0.2415
-1.9138 ARE -0.2957
-2.2148 BACK -0.2476
-2.2148 COME -0.2984
-2.2148 DAY -0.2930
-2.2148 DINING -0.2957
-2.2148 DOWN -0.2476
-1.9138 GO -0.2957
-2.2148 GOING -0.2476
-2.2148 HOW -0.2957
-1.7377 IS -0.2930
-2.2148 IT -0.2476
-2.2148 KEEP -0.2984
-2.2148 LIVING -0.2957
-1.9138 MUSIC -0.2476
-2.2148 MUTE -0.2476
-1.9138 NAME -0.2476
-2.2148 PLAY -0.2957
-1.9138 ROOM -0.2476
-2.2148 SILENT -0.2476
-1.9138 STOP -0.2415
-1.9138 TIME -0.2385
-1.9138 TO -0.2957
-2.2148 TODAY -0.2476
-2.2148 UNMUTE -0.2476
-2.2148 UP -0.2476
-1.9138 VOLUME -0.2957
-1.7377 WHAT -0.2848
-2.2148 WHERE -0.2957
-1.9138 YOU -0.2476
-2.2148 YOUR -0.2957

\2-grams:
-1.5798 <s> COME 0.0000
-1.2788 <s> GO 0.0000
-1.5798 <s> HOW 0.0000
-1.5798 <s> KEEP 0.0000
-1.5798 <s> MUTE 0.0000
-1.5798 <s> NAME 0.0000
-1.5798 <s> PLAY 0.0000
-1.5798 <s> SILENT 0.0000
-1.2788 <s> STOP 0.0000
-1.5798 <s> TIME -0.1761
-1.5798 <s> UNMUTE 0.0000
-1.2788 <s> VOLUME 0.0000
-1.1027 <s> WHAT 0.0000
-1.5798 <s> WHERE 0.0000
-0.3010 ARE YOU 0.0000
-0.3010 BACK </s> -0.3010
-0.3010 COME BACK 0.0000
-0.3010 DAY IS -0.2218
-0.3010 DINING ROOM 0.0000
-0.3010 DOWN </s> -0.3010
-0.3010 GO TO 0.0000
-0.3010 GOING </s> -0.3010
-0.3010 HOW ARE 0.0000
-0.7782 IS IT 0.0000
-0.7782 IS TODAY 0.0000
-0.7782 IS YOUR 0.0000
-0.3010 IT </s> -0.3010
-0.3010 KEEP GOING 0.0000
-0.3010 LIVING ROOM 0.0000
-0.3010 MUSIC </s> -0.3010
-0.3010 MUTE </s> -0.3010
-0.3010 NAME </s> -0.3010
-0.3010 PLAY MUSIC 0.0000
-0.3010 ROOM </s> -0.3010
-0.3010 SILENT </s> -0.3010
-0.6021 STOP </s> -0.3010
-0.6021 STOP MUSIC 0.0000
-0.6021 TIME </s> -0.3010
-0.6021 TIME IS -0.2218
-0.6021 TO DINING 0.0000
-0.6021 TO LIVING 0.0000
-0.3010 TODAY </s> -0.3010
-0.3010 UNMUTE </s> -0.3010
-0.3010 UP </s> -0.3010
-0.6021 VOLUME DOWN 0.0000
-0.6021 VOLUME UP 0.0000
-0.7782 WHAT DAY 0.0000
-0.7782 WHAT IS -0.2218
-0.7782 WHAT TIME -0.1761
-0.3010 WHERE ARE 0.0000
-0.3010 YOU </s> -0.3010
-0.3010 YOUR NAME 0.0000

\3-grams:
-0.3010 <s> COME BACK
-0.3010 <s> GO TO
-0.3010 <s> HOW ARE
-0.3010 <s> KEEP GOING
-0.3010 <s> MUTE </s>
-0.3010 <s> NAME </s>
-0.3010 <s> PLAY MUSIC
-0.3010 <s> SILENT </s>
-0.6021 <s> STOP </s>
-0.6021 <s> STOP MUSIC
-0.3010 <s> TIME </s>
-0.3010 <s> UNMUTE </s>
-0.6021 <s> VOLUME DOWN
-0.6021 <s> VOLUME UP
-0.7782 <s> WHAT DAY
-0.7782 <s> WHAT IS
-0.7782 <s> WHAT TIME
-0.3010 <s> WHERE ARE
-0.3010 ARE YOU </s>
-0.3010 COME BACK </s>
-0.3010 DAY IS TODAY
-0.3010 DINING ROOM </s>
-0.6021 GO TO DINING
-0.6021 GO TO LIVING
-0.3010 HOW ARE YOU
-0.3010 IS IT </s>
-0.3010 IS TODAY </s>
-0.3010 IS YOUR NAME
-0.3010 KEEP GOING </s>
-0.3010 LIVING ROOM </s>
-0.3010 PLAY MUSIC </s>
-0.3010 STOP MUSIC </s>
-0.3010 TIME IS IT
-0.3010 TO DINING ROOM
-0.3010 TO LIVING ROOM
-0.3010 VOLUME DOWN </s>
-0.3010 VOLUME UP </s>
-0.3010 WHAT DAY IS
-0.3010 WHAT IS YOUR
-0.3010 WHAT TIME IS
-0.3010 WHERE ARE YOU
-0.3010 YOUR NAME </s>

\end\
